{
  "defaults": {},
  "inputs": [
    {
      "name": "jet3_pt",
      "offset": 0,
      "scale": 1
    },
    {
      "name": "jet3_eta",
      "offset": 0,
      "scale": 1
    },
    {
      "name": "lep1_eta",
      "offset": 0,
      "scale": 1
    },
    {
      "name": "jet2_pt",
      "offset": 0,
      "scale": 1
    },
    {
      "name": "jet1_E",
      "offset": 0,
      "scale": 1
    },
    {
      "name": "jet1_pt",
      "offset": 0,
      "scale": 1
    },
    {
      "name": "mT_lep1",
      "offset": 0,
      "scale": 1
    },
    {
      "name": "resTop_BDT",
      "offset": 0,
      "scale": 1
    },
    {
      "name": "jet4_phi",
      "offset": 0,
      "scale": 1
    },
    {
      "name": "lep2_conePt",
      "offset": 0,
      "scale": 1
    },
    {
      "name": "massL",
      "offset": 0,
      "scale": 1
    },
    {
      "name": "jet2_E",
      "offset": 0,
      "scale": 1
    },
    {
      "name": "jet1_phi",
      "offset": 0,
      "scale": 1
    },
    {
      "name": "jet2_eta",
      "offset": 0,
      "scale": 1
    },
    {
      "name": "jet3_E",
      "offset": 0,
      "scale": 1
    },
    {
      "name": "n_presel_jet",
      "offset": 0,
      "scale": 1
    },
    {
      "name": "jet4_E",
      "offset": 0,
      "scale": 1
    },
    {
      "name": "lep1_charge",
      "offset": 0,
      "scale": 1
    },
    {
      "name": "avg_dr_jet",
      "offset": 0,
      "scale": 1
    },
    {
      "name": "lep1_phi",
      "offset": 0,
      "scale": 1
    },
    {
      "name": "mindr_lep2_jet",
      "offset": 0,
      "scale": 1
    },
    {
      "name": "nBJetLoose",
      "offset": 0,
      "scale": 1
    },
    {
      "name": "jet4_pt",
      "offset": 0,
      "scale": 1
    },
    {
      "name": "n_presel_mu",
      "offset": 0,
      "scale": 1
    },
    {
      "name": "mindr_lep1_jet",
      "offset": 0,
      "scale": 1
    },
    {
      "name": "lep1_conePt",
      "offset": 0,
      "scale": 1
    },
    {
      "name": "lep2_phi",
      "offset": 0,
      "scale": 1
    },
    {
      "name": "jet2_phi",
      "offset": 0,
      "scale": 1
    },
    {
      "name": "lep2_eta",
      "offset": 0,
      "scale": 1
    },
    {
      "name": "mbb",
      "offset": 0,
      "scale": 1
    },
    {
      "name": "lep1_E",
      "offset": 0,
      "scale": 1
    },
    {
      "name": "jet4_eta",
      "offset": 0,
      "scale": 1
    },
    {
      "name": "nBJetMedium",
      "offset": 0,
      "scale": 1
    },
    {
      "name": "Hj_tagger_resTop",
      "offset": 0,
      "scale": 1
    },
    {
      "name": "Dilep_pdgId",
      "offset": 0,
      "scale": 1
    },
    {
      "name": "mT_lep2",
      "offset": 0,
      "scale": 1
    },
    {
      "name": "metLD",
      "offset": 0,
      "scale": 1
    },
    {
      "name": "jet3_phi",
      "offset": 0,
      "scale": 1
    },
    {
      "name": "maxeta",
      "offset": 0,
      "scale": 1
    },
    {
      "name": "n_presel_ele",
      "offset": 0,
      "scale": 1
    },
    {
      "name": "jet1_eta",
      "offset": 0,
      "scale": 1
    },
    {
      "name": "lep2_E",
      "offset": 0,
      "scale": 1
    }
  ],
  "layers": [
    {
      "activation": "rectified",
      "architecture": "dense",
      "bias": [
        -1.2560487985610962,
        -1.7691794633865356,
        -1.319006323814392,
        -5.220755100250244,
        5.543211936950684,
        3.215830087661743,
        -0.9085314869880676,
        -0.6993681192398071,
        3.4581995010375977,
        -1.4516677856445312,
        -2.0741565227508545,
        -1.460244059562683,
        3.224543809890747,
        -4.134296894073486,
        -2.004845142364502,
        3.019033670425415,
        -5.030203342437744,
        1.9967796802520752,
        -4.640603065490723,
        -4.456070423126221,
        -0.9075105786323547,
        -3.950831890106201,
        2.055850028991699,
        0.3488553464412689,
        -3.439300060272217,
        -4.683679580688477,
        -0.41399362683296204,
        -1.0689773559570312,
        4.178960800170898,
        -4.425708770751953,
        -3.3447155952453613,
        3.6534619331359863
      ],
      "weights": [
        -0.1827608048915863,
        -0.9083186984062195,
        -1.794668197631836,
        -0.3547506630420685,
        0.09565079212188721,
        -0.34492310881614685,
        -0.1464003324508667,
        -0.035443101078271866,
        0.6284748315811157,
        0.5602520108222961,
        0.6161458492279053,
        0.08052130788564682,
        1.0537877082824707,
        0.7812051773071289,
        0.006244764197617769,
        6.691714763641357,
        0.4199560880661011,
        -1.6775240898132324,
        5.513049125671387,
        -0.014863044954836369,
        10.709027290344238,
        -6.897157669067383,
        -2.2602031230926514,
        -4.462205410003662,
        8.212198257446289,
        0.40632280707359314,
        -15.732953071594238,
        -0.8934403657913208,
        1.1353453397750854,
        -1.2613180875778198,
        -0.0602792464196682,
        -0.4607630670070648,
        1.3759201765060425,
        -1.6687734127044678,
        3.468144655227661,
        -0.0943424254655838,
        -0.2779298722743988,
        -0.5490818619728088,
        0.9365988969802856,
        -0.7393660545349121,
        -0.271001398563385,
        -0.8053343296051025,
        0.03931530565023422,
        0.07328391075134277,
        -0.6954020857810974,
        0.04277420789003372,
        -0.003353073727339506,
        0.025528449565172195,
        -0.011623416095972061,
        -0.006427087355405092,
        0.1943405568599701,
        -1.7888907194137573,
        1.243343710899353,
        -0.0029190112836658955,
        0.3242691159248352,
        -0.11028703302145004,
        0.003576104762032628,
        9.830137252807617,
        -0.0169240590184927,
        1.2328771352767944,
        0.6960480213165283,
        0.0769895538687706,
        3.520418167114258,
        0.8166146874427795,
        0.09873874485492706,
        -7.146072864532471,
        2.2284862995147705,
        -0.9374879598617554,
        0.1810590773820877,
        0.29327937960624695,
        0.03269406035542488,
        1.5011894702911377,
        0.008992397226393223,
        0.04287083446979523,
        -0.15526121854782104,
        -2.217721462249756,
        -0.9486931562423706,
        -1.4641942977905273,
        -0.004696750082075596,
        0.025520846247673035,
        0.032795585691928864,
        -4.9739813804626465,
        0.04416335001587868,
        0.01167608518153429,
        0.14159859716892242,
        0.289687842130661,
        3.199503183364868,
        0.037397630512714386,
        0.0011249310337007046,
        0.005382783245295286,
        0.027090180665254593,
        0.006050863303244114,
        0.3193945288658142,
        0.6237326860427856,
        -0.05874756723642349,
        -0.02786719799041748,
        0.06504487991333008,
        0.055031269788742065,
        -0.023654811084270477,
        20.447265625,
        -0.00805612001568079,
        0.2950666546821594,
        0.7366332411766052,
        0.10189881920814514,
        -2.6108784675598145,
        1.2286485433578491,
        -0.4297090470790863,
        -6.0713677406311035,
        6.223241329193115,
        6.363410472869873,
        -1.5627909898757935,
        0.5758437514305115,
        0.01682104729115963,
        0.9284740686416626,
        -0.0010952581651508808,
        -6.4985032081604,
        0.12125132977962494,
        1.3484596014022827,
        0.6652798056602478,
        -0.1023259237408638,
        0.03184857591986656,
        0.01050114817917347,
        0.011004815809428692,
        -5.891977787017822,
        -0.1568995863199234,
        -0.21492508053779602,
        -0.10716214776039124,
        -0.2825475037097931,
        -0.5087423324584961,
        -0.19307301938533783,
        0.261354923248291,
        -0.2141134887933731,
        0.22077086567878723,
        -0.0054021915420889854,
        0.32888391613960266,
        -0.1912846565246582,
        0.028410855680704117,
        0.19393521547317505,
        -0.4705895483493805,
        0.7014925479888916,
        0.13622793555259705,
        -3.8323793411254883,
        0.11760903149843216,
        -0.3984619975090027,
        -0.1715877205133438,
        0.3499092161655426,
        0.5598727464675903,
        -2.2038352489471436,
        0.09515275806188583,
        -10.072545051574707,
        4.094953536987305,
        -0.009219098836183548,
        -0.3607603907585144,
        -0.6931930780410767,
        -0.6578722596168518,
        -0.1780836284160614,
        0.0800030454993248,
        -0.21222861111164093,
        -0.39367759227752686,
        -7.039752006530762,
        1.3342400789260864,
        -0.8276796936988831,
        0.08897895365953445,
        -0.13086096942424774,
        0.0326739177107811,
        2.6376960277557373,
        0.42049700021743774,
        0.30716878175735474,
        0.09604264795780182,
        0.09264267235994339,
        0.004948076792061329,
        0.08238206058740616,
        -0.004982225131243467,
        0.0026049932930618525,
        -0.02899819053709507,
        -0.002646690933033824,
        -0.2649827301502228,
        1.2883408069610596,
        0.007478407118469477,
        -0.009882365353405476,
        0.2456890493631363,
        0.32046619057655334,
        -0.006559851113706827,
        -4.300262451171875,
        -0.019420063123106956,
        -0.8928191661834717,
        -0.9765379428863525,
        -0.05128343775868416,
        -1.1949869394302368,
        0.2387685477733612,
        0.10790909081697464,
        5.627139091491699,
        1.5426467657089233,
        -1.451479434967041,
        0.6907191276550293,
        0.19715730845928192,
        0.09199770539999008,
        0.0010132709285244346,
        0.015150354243814945,
        0.5548576712608337,
        0.25463488698005676,
        -1.3884273767471313,
        -0.28399160504341125,
        2.2537617683410645,
        -0.016978198662400246,
        0.016874777153134346,
        -0.08607015758752823,
        5.416305065155029,
        0.2900157570838928,
        -0.6367977261543274,
        -0.09902362525463104,
        -0.6557691097259521,
        0.33614444732666016,
        -0.022669360041618347,
        0.04194890707731247,
        0.08231199532747269,
        0.01030430942773819,
        -0.027217978611588478,
        -0.07804334908723831,
        -0.8189958930015564,
        -0.1549595296382904,
        0.09189207851886749,
        0.12215966731309891,
        0.4268275201320648,
        0.1104523167014122,
        -13.224392890930176,
        0.023489197716116905,
        1.930503010749817,
        -1.7095774412155151,
        0.2795422077178955,
        -0.43321555852890015,
        -0.41091203689575195,
        -0.04598315805196762,
        8.309062957763672,
        -1.7810484170913696,
        -0.3068918287754059,
        1.174432396888733,
        0.37086522579193115,
        -0.016479087993502617,
        -2.096359968185425,
        -0.07599381357431412,
        0.4557410776615143,
        0.017603792250156403,
        -0.09990087896585464,
        -0.45213839411735535,
        0.15475554764270782,
        0.046999648213386536,
        -0.20502302050590515,
        -0.8373546004295349,
        7.492358684539795,
        -0.34474125504493713,
        1.1406164169311523,
        -0.791527509689331,
        -0.7559489011764526,
        -2.175081729888916,
        -0.29426077008247375,
        -0.05295279249548912,
        -0.26875197887420654,
        -0.012936319224536419,
        -0.04318477585911751,
        -0.10967733711004257,
        1.7524120807647705,
        -6.859254837036133,
        0.018020594492554665,
        -0.2389211505651474,
        0.7537697553634644,
        -0.09393806755542755,
        12.47326374053955,
        -0.11571074277162552,
        -30.374059677124023,
        4.563355922698975,
        -1.5830470323562622,
        3.370408296585083,
        0.21412333846092224,
        -0.03881797939538956,
        13.820884704589844,
        4.80035924911499,
        -0.3992026448249817,
        -1.04672372341156,
        -1.8328924179077148,
        0.6025530695915222,
        1.7160054445266724,
        -0.13535919785499573,
        0.1248481273651123,
        0.14173708856105804,
        -1.5638298988342285,
        3.007918357849121,
        4.680171489715576,
        -0.14669229090213776,
        -0.7511193752288818,
        0.6107807755470276,
        23.304759979248047,
        0.7600222229957581,
        0.22712260484695435,
        0.5310054421424866,
        1.2420945167541504,
        0.26254647970199585,
        0.7300835251808167,
        -0.18245309591293335,
        0.5065522193908691,
        0.18642446398735046,
        0.0010869994293898344,
        0.11997998505830765,
        -5.936401844024658,
        1.0280545949935913,
        -0.4038129448890686,
        2.490157127380371,
        -2.025923013687134,
        -0.6893775463104248,
        -12.605958938598633,
        -0.1667216271162033,
        20.390213012695312,
        -4.455554962158203,
        -1.3352454900741577,
        -2.731837749481201,
        -2.0616862773895264,
        -0.18705429136753082,
        -24.45492172241211,
        -2.3942575454711914,
        -3.606710433959961,
        -5.634903907775879,
        -0.3463246822357178,
        0.4149215817451477,
        -0.19587305188179016,
        -0.08812891691923141,
        -0.7819243669509888,
        0.11649555712938309,
        1.6816989183425903,
        3.4492287635803223,
        -6.521894454956055,
        0.807561457157135,
        0.28913334012031555,
        -1.5318083763122559,
        -31.452777862548828,
        0.26984962821006775,
        -1.3139797449111938,
        0.0020009526051580906,
        0.18891507387161255,
        -0.32670173048973083,
        0.018195703625679016,
        0.0017798944609239697,
        -0.13573014736175537,
        -0.3939526379108429,
        -0.004418237134814262,
        0.24430835247039795,
        -0.0394103042781353,
        0.09096313267946243,
        0.0036037438549101353,
        0.46886757016181946,
        0.5400898456573486,
        0.017554214224219322,
        -5.3118462562561035,
        0.03987610712647438,
        0.18451601266860962,
        -4.686599254608154,
        -1.1038206815719604,
        2.135559558868408,
        3.7031779289245605,
        -0.009531247429549694,
        3.9474008083343506,
        3.9004595279693604,
        0.3811274468898773,
        1.4061474800109863,
        -0.9760979413986206,
        0.5169437527656555,
        -0.7493425011634827,
        0.008738788776099682,
        -0.01834501139819622,
        0.6178150773048401,
        1.3579015731811523,
        -3.1294450759887695,
        1.8596203327178955,
        -0.53126460313797,
        0.4160596430301666,
        0.24296654760837555,
        7.917439937591553,
        0.31855523586273193,
        -0.005093001760542393,
        -0.5534000396728516,
        0.08376404643058777,
        0.2166787087917328,
        -0.1981194019317627,
        -0.03842337056994438,
        -0.03201174736022949,
        -0.061152394860982895,
        -0.020327121019363403,
        -0.10688291490077972,
        0.6845586895942688,
        0.1446109265089035,
        -0.056528374552726746,
        0.08174937218427658,
        0.5561649203300476,
        -0.0398167222738266,
        46.779212951660156,
        -0.08573269844055176,
        -5.674980640411377,
        5.772683143615723,
        0.17445440590381622,
        7.676511287689209,
        1.8681467771530151,
        0.23734457790851593,
        -25.408308029174805,
        9.158758163452148,
        0.5042628049850464,
        -5.371819972991943,
        0.015520771965384483,
        0.18643945455551147,
        -0.6081393361091614,
        -0.00998636893928051,
        -0.5436433553695679,
        -0.07693897187709808,
        -2.773919105529785,
        -2.864757537841797,
        3.3968868255615234,
        -0.09988570213317871,
        -0.26482993364334106,
        -0.23506660759449005,
        -20.720117568969727,
        0.45782941579818726,
        -0.943081796169281,
        0.02744860015809536,
        0.16827267408370972,
        -1.1613014936447144,
        0.014302855357527733,
        -0.0055602118372917175,
        0.07076970487833023,
        0.1713438183069229,
        -0.009570896625518799,
        -0.08380870521068573,
        0.6510117053985596,
        0.3563220202922821,
        0.021878652274608612,
        -0.1334850937128067,
        0.473345011472702,
        0.007807241752743721,
        7.089085102081299,
        -0.020544731989502907,
        -0.7958132028579712,
        -1.5217899084091187,
        -0.29142850637435913,
        -1.0024964809417725,
        1.4150139093399048,
        0.36622896790504456,
        1.7506150007247925,
        -0.1566557139158249,
        0.7523913383483887,
        4.764711380004883,
        0.17210079729557037,
        -0.01579354889690876,
        1.6065547466278076,
        0.03727500140666962,
        -0.9608262777328491,
        -0.1567160189151764,
        2.487779378890991,
        -0.6266962885856628,
        -0.46173012256622314,
        0.13515827059745789,
        -0.14938713610172272,
        -0.2638460397720337,
        1.8683242797851562,
        -0.2456008940935135,
        -0.9965997338294983,
        -0.8618063926696777,
        0.24425256252288818,
        1.171218991279602,
        -0.6628480553627014,
        -1.315901279449463,
        0.5111997723579407,
        0.7428673505783081,
        -0.05373464897274971,
        -0.08644643425941467,
        -1.2977800369262695,
        -0.17632272839546204,
        -0.8969672918319702,
        -1.9151723384857178,
        0.022780459374189377,
        -0.36915165185928345,
        -31.46512794494629,
        -0.24077101051807404,
        -4.559894561767578,
        -1.670014500617981,
        3.8063671588897705,
        -2.5766913890838623,
        -7.0492353439331055,
        0.09601087123155594,
        18.632747650146484,
        -5.099958419799805,
        1.0294488668441772,
        -3.8395607471466064,
        1.0361777544021606,
        -0.9677184224128723,
        1.4535037279129028,
        -0.05177339166402817,
        0.653359591960907,
        0.1854327768087387,
        -0.8237015008926392,
        1.4624488353729248,
        -7.100464344024658,
        1.0874145030975342,
        -2.6279726028442383,
        -0.39754778146743774,
        12.284069061279297,
        2.2178661823272705,
        0.6868577599525452,
        0.23789605498313904,
        -0.10555048286914825,
        0.15570278465747833,
        0.10027002543210983,
        -0.02146928757429123,
        0.017002569511532784,
        0.158909410238266,
        0.009908345527946949,
        0.45060598850250244,
        -0.6403161287307739,
        -0.023649943992495537,
        -0.0315973237156868,
        -0.05651627108454704,
        -0.27601784467697144,
        -0.036568783223629,
        -13.256390571594238,
        0.040264446288347244,
        1.1357756853103638,
        -0.654531717300415,
        0.04373838007450104,
        -2.0341508388519287,
        -0.5510733723640442,
        0.1714482307434082,
        7.646805763244629,
        -1.3891679048538208,
        0.0168993528932333,
        -0.251688152551651,
        -0.5740562081336975,
        0.2994326055049896,
        0.25944778323173523,
        0.08730755746364594,
        0.011331894434988499,
        -0.1682727336883545,
        0.25357675552368164,
        3.253201961517334,
        -0.6847931146621704,
        0.11394158005714417,
        -0.019537558779120445,
        0.8135033845901489,
        4.841923236846924,
        0.04084179177880287,
        0.31952065229415894,
        0.013503770343959332,
        -0.27625805139541626,
        0.1918361485004425,
        -0.004044411238282919,
        0.011717521585524082,
        -0.024330539628863335,
        0.08649156242609024,
        -0.004594684112817049,
        -0.19240637123584747,
        0.02959868684411049,
        0.0016833229456096888,
        0.02030680701136589,
        -0.10594809800386429,
        -0.2714192867279053,
        0.028848199173808098,
        37.868167877197266,
        -0.1459076702594757,
        2.259521007537842,
        3.6337664127349854,
        0.0943962037563324,
        3.1919751167297363,
        2.9835405349731445,
        0.0442834347486496,
        -33.12385177612305,
        6.291705131530762,
        -0.17973962426185608,
        -6.88246488571167,
        0.13205043971538544,
        -0.13797897100448608,
        0.46385401487350464,
        -0.009164582937955856,
        0.1229679137468338,
        0.2850051820278168,
        -1.6754440069198608,
        1.0038913488388062,
        2.19575572013855,
        0.06466540694236755,
        -0.0823797732591629,
        0.0824974924325943,
        -27.987289428710938,
        0.04625594615936279,
        0.11394891142845154,
        -0.10464543849229813,
        0.0998750776052475,
        -0.80380779504776,
        -0.04091927036643028,
        0.01766803115606308,
        -0.08036719262599945,
        0.06458380073308945,
        12.60145378112793,
        -0.08076877892017365,
        -0.0940178856253624,
        -0.06449020653963089,
        0.018255261704325676,
        0.15496684610843658,
        0.6398069858551025,
        0.0425398014485836,
        -4.583713531494141,
        0.029947150498628616,
        -0.4020668566226959,
        -3.3367085456848145,
        -0.07114854454994202,
        1.0180712938308716,
        0.806969404220581,
        0.0787792056798935,
        5.310821533203125,
        1.3991316556930542,
        0.07095500081777573,
        1.7139393091201782,
        0.03701549395918846,
        -0.07978164404630661,
        0.15796564519405365,
        0.027305888012051582,
        -0.014920607209205627,
        0.0019211263861507177,
        -0.6576300859451294,
        -1.8455764055252075,
        -0.014075028710067272,
        0.061993308365345,
        -0.109857477247715,
        0.12045525759458542,
        12.091511726379395,
        0.5327209830284119,
        0.01529577374458313,
        0.07561779022216797,
        0.15383952856063843,
        2.0033047199249268,
        0.04459518939256668,
        0.033480655401945114,
        -0.0197011549025774,
        0.20414045453071594,
        0.014400283806025982,
        0.30431750416755676,
        -0.6274943351745605,
        -0.2881854474544525,
        0.005932983942329884,
        0.08140554279088974,
        0.6083890199661255,
        -0.0007124758558347821,
        -5.176575660705566,
        0.05545653775334358,
        1.4546726942062378,
        -2.8393020629882812,
        -0.336140900850296,
        0.7435891032218933,
        1.524446964263916,
        0.12791647017002106,
        4.901200771331787,
        0.016719592735171318,
        -0.6481674313545227,
        1.7250341176986694,
        0.4785144627094269,
        -0.24096819758415222,
        -1.5795856714248657,
        0.18971633911132812,
        0.478864848613739,
        0.20232006907463074,
        0.5445766448974609,
        -1.0201926231384277,
        0.2649283707141876,
        0.11839771270751953,
        -0.07234103232622147,
        0.015500886365771294,
        3.632797956466675,
        0.36028599739074707,
        0.6165876984596252,
        -0.006023315247148275,
        -0.007790340110659599,
        0.05304254963994026,
        -0.014078866690397263,
        0.036157552152872086,
        -0.036486513912677765,
        -0.01225060224533081,
        0.005846822168678045,
        -0.46255815029144287,
        0.1746991127729416,
        -0.06874227523803711,
        0.026480143889784813,
        -0.42864227294921875,
        0.2384534776210785,
        0.040131185203790665,
        11.493814468383789,
        0.05143505334854126,
        -0.16511081159114838,
        -0.19943445920944214,
        -0.5537945032119751,
        -2.2479381561279297,
        -0.0741267055273056,
        0.05816035345196724,
        -9.606474876403809,
        -1.1942108869552612,
        0.02285129576921463,
        -0.2285071760416031,
        -0.8870341181755066,
        -0.24720218777656555,
        1.6151541471481323,
        0.05913833528757095,
        -0.003299012081697583,
        0.44893407821655273,
        -0.13302390277385712,
        1.0770200490951538,
        -1.4095014333724976,
        -0.026025861501693726,
        -0.007409708108752966,
        -0.7783825993537903,
        -7.194729328155518,
        0.20620010793209076,
        0.16122359037399292,
        -0.013531005941331387,
        0.300632119178772,
        0.33287864923477173,
        0.02015339769423008,
        -0.002698017517104745,
        0.003676322754472494,
        -0.03119639866054058,
        0.011227559298276901,
        0.05799484997987747,
        0.8632270693778992,
        -0.4789440631866455,
        -0.010999627411365509,
        -0.21778307855129242,
        0.19322820007801056,
        0.00431402213871479,
        -15.713053703308105,
        0.018862975761294365,
        -0.4852431118488312,
        -2.393380641937256,
        0.317815363407135,
        6.461280822753906,
        -0.6878564357757568,
        0.03396156057715416,
        1.5764374732971191,
        4.971269130706787,
        0.329800546169281,
        0.056290313601493835,
        0.1403535157442093,
        -0.21309150755405426,
        -0.8593142628669739,
        0.021881073713302612,
        0.0029669541399925947,
        0.011536499485373497,
        -3.230160713195801,
        -0.35735955834388733,
        -2.719557046890259,
        -0.07322399318218231,
        0.0035892962478101254,
        -0.16971170902252197,
        3.9881906509399414,
        0.0005347108817659318,
        0.040323372930288315,
        0.03201087936758995,
        0.08354353904724121,
        2.3379926681518555,
        0.024732019752264023,
        -0.00243017403408885,
        0.0020110008772462606,
        0.031710173934698105,
        0.0003633854503277689,
        0.10541035234928131,
        0.9807634353637695,
        0.005297730676829815,
        -0.003393701510503888,
        0.20697182416915894,
        0.1075374037027359,
        0.0006453772657550871,
        14.33346176147461,
        0.002761248964816332,
        -0.0436972975730896,
        -0.29893186688423157,
        -0.0009669694118201733,
        1.7817672491073608,
        -0.39388802647590637,
        -0.11001722514629364,
        -2.2981815338134766,
        -0.840205192565918,
        -0.4224938154220581,
        0.16479335725307465,
        -0.041120126843452454,
        0.10681190341711044,
        0.2091364860534668,
        0.010863516479730606,
        0.47875386476516724,
        0.28690043091773987,
        -0.47286683320999146,
        0.45645517110824585,
        -1.2265632152557373,
        -0.004269344266504049,
        0.013719635084271431,
        -0.1695999801158905,
        -0.5254300832748413,
        0.015569225884974003,
        -0.7369808554649353,
        0.0637470930814743,
        -0.11080493777990341,
        -0.2138144075870514,
        0.006703963968902826,
        -0.005293039605021477,
        0.03813525661826134,
        0.027935178950428963,
        3.501202445477247e-05,
        0.04513660445809364,
        0.25410643219947815,
        0.030425217002630234,
        0.005994830746203661,
        -0.026657914742827415,
        -0.014268666505813599,
        -0.004996629431843758,
        2.011042356491089,
        -0.011635172180831432,
        -0.3797493577003479,
        -6.390174865722656,
        0.10431730002164841,
        -5.7896409034729,
        1.4512622356414795,
        0.1378793865442276,
        6.242085933685303,
        -6.012201309204102,
        0.08914194256067276,
        7.627202987670898,
        0.08110593259334564,
        -0.12488837540149689,
        0.24543659389019012,
        0.01987791620194912,
        -0.04200732335448265,
        -0.1389186680316925,
        -2.278843641281128,
        2.027653694152832,
        -3.310447931289673,
        0.044965896755456924,
        0.03934392333030701,
        -0.11663586646318436,
        4.431599140167236,
        0.09479136019945145,
        0.02050786465406418,
        -0.16939085721969604,
        -3.592348575592041,
        -1.4199965000152588,
        -0.5930225849151611,
        -0.008821644820272923,
        0.31314751505851746,
        -0.5623616576194763,
        0.043042562901973724,
        -0.5983591079711914,
        -2.8290855884552,
        -1.3076809644699097,
        0.0862341970205307,
        0.18695834279060364,
        -0.6845395565032959,
        0.07537940889596939,
        3.257246971130371,
        0.43371111154556274,
        -2.5945842266082764,
        1.725071907043457,
        0.3409803807735443,
        -3.622636556625366,
        -2.3148815631866455,
        -0.1042543351650238,
        -8.4192476272583,
        -3.6265616416931152,
        -0.8239243030548096,
        1.6026360988616943,
        -2.513733386993408,
        0.30655503273010254,
        -1.116729497909546,
        -0.10492410510778427,
        -0.6853765845298767,
        0.7559306025505066,
        -1.8370243310928345,
        6.485316753387451,
        -0.4101317524909973,
        -0.10376740247011185,
        0.32514071464538574,
        -1.5861302614212036,
        -6.681624889373779,
        -3.125642776489258,
        -1.138107419013977,
        0.049940820783376694,
        0.3507404327392578,
        0.16680467128753662,
        0.05830518528819084,
        -0.011410520412027836,
        0.0018638699548318982,
        0.028693560510873795,
        -0.015000793151557446,
        0.5107095837593079,
        0.1956326812505722,
        -0.25979405641555786,
        0.02358299307525158,
        0.47372227907180786,
        0.12565916776657104,
        0.030521947890520096,
        10.96816349029541,
        0.04003685340285301,
        -0.14064036309719086,
        -0.2710753083229065,
        0.21987546980381012,
        2.336225748062134,
        1.157762050628662,
        0.09886247664690018,
        -10.537480354309082,
        2.805497884750366,
        -0.08441229164600372,
        -0.9271160364151001,
        0.21418508887290955,
        0.5392106175422668,
        1.4742006063461304,
        -0.04929468780755997,
        0.38784876465797424,
        -0.35135695338249207,
        1.1618366241455078,
        -1.890549659729004,
        0.5683991312980652,
        -0.053080037236213684,
        -0.011840466409921646,
        0.6620437502861023,
        -6.055422782897949,
        0.046686094254255295,
        0.10597354918718338,
        0.07490865141153336,
        0.05407102406024933,
        0.6039173007011414,
        0.11364521086215973,
        0.007038163486868143,
        0.05584060773253441,
        0.2024078220129013,
        0.007307026535272598,
        -0.0965837612748146,
        -0.3341899812221527,
        0.031211769208312035,
        -0.005426725372672081,
        -0.20863066613674164,
        -0.39898601174354553,
        -0.010039647109806538,
        0.32851260900497437,
        -0.014609447680413723,
        10.541648864746094,
        -6.121128559112549,
        0.040376950055360794,
        10.495625495910645,
        0.12864790856838226,
        0.13362117111682892,
        0.27485355734825134,
        11.238799095153809,
        -0.1278057098388672,
        -6.384174346923828,
        -0.41268104314804077,
        -0.32878443598747253,
        0.32988113164901733,
        -0.0040754820220172405,
        0.02109607867896557,
        0.05206489562988281,
        4.3785481452941895,
        -3.840385675430298,
        0.8750553727149963,
        0.2793958783149719,
        0.12083835154771805,
        -0.13470977544784546,
        -3.5050814151763916,
        -0.2006990611553192,
        0.1927628219127655,
        -0.740511953830719,
        1.0087835788726807,
        0.2962909936904907,
        -1.3091799020767212,
        -0.2613433003425598,
        -0.17306697368621826,
        -0.5095176100730896,
        -0.03906247019767761,
        -0.7736096382141113,
        0.45300862193107605,
        -0.30257847905158997,
        -0.10924913734197617,
        -1.0899218320846558,
        0.09160679578781128,
        0.16446305811405182,
        1.060874581336975,
        0.20102815330028534,
        1.4277806282043457,
        -0.0922631248831749,
        -0.16049176454544067,
        0.38655176758766174,
        -0.004635645542293787,
        0.31989288330078125,
        -0.6170955896377563,
        0.048201341181993484,
        -1.0174710750579834,
        0.8670762181282043,
        -0.11965198069810867,
        -0.35957133769989014,
        0.14306522905826569,
        0.007406193297356367,
        0.6810132265090942,
        0.4056670069694519,
        0.08006679266691208,
        -0.4303472340106964,
        1.0571683645248413,
        -0.11451661586761475,
        0.6960415244102478,
        -1.0862207412719727,
        0.8630371689796448,
        0.494698703289032,
        -0.1290721893310547,
        0.049170732498168945,
        -0.3101406693458557,
        -0.5445285439491272,
        -0.3389018774032593,
        -0.016548119485378265,
        -5.200324058532715,
        0.10924744606018066,
        -0.025551313534379005,
        -0.03774677589535713,
        6.143673419952393,
        0.011575368233025074,
        0.058708883821964264,
        0.6339954137802124,
        -0.45256689190864563,
        0.043645597994327545,
        25.83021354675293,
        0.057183556258678436,
        -0.05288015305995941,
        2.71604323387146,
        0.8956943154335022,
        3.2632641792297363,
        2.9542672634124756,
        -0.011604957282543182,
        -12.579874038696289,
        8.045127868652344,
        -0.013900643214583397,
        -2.9698243141174316,
        -0.07680654525756836,
        -0.2957840859889984,
        0.24184004962444305,
        -0.017861973494291306,
        -0.13289445638656616,
        -0.05031396821141243,
        -0.961941659450531,
        2.1268608570098877,
        0.1358136236667633,
        0.041115883737802505,
        -0.20549583435058594,
        -0.09040455520153046,
        -6.134538650512695,
        -0.5101063251495361,
        -0.004069535993039608,
        -0.017105720937252045,
        -0.5138982534408569,
        -0.11054795980453491,
        0.0006665731780230999,
        0.0004536511260084808,
        0.0011448899749666452,
        0.002413068898022175,
        0.0014940074179321527,
        0.050927601754665375,
        -0.9725769758224487,
        -0.03776020184159279,
        -0.002850261051207781,
        0.011075316928327084,
        -0.31098970770835876,
        0.0028503774665296078,
        10.427868843078613,
        0.000813325576018542,
        0.247861847281456,
        0.2471751868724823,
        0.1118130162358284,
        0.9640341401100159,
        -0.11955646425485611,
        0.0332372784614563,
        -4.015312194824219,
        0.8859685063362122,
        0.21691475808620453,
        -0.18609848618507385,
        -0.010323158465325832,
        -0.011869529262185097,
        -6.262051582336426,
        0.010680676437914371,
        -0.11832399666309357,
        -0.031474627554416656,
        -1.2618736028671265,
        0.14815865457057953,
        -0.701130747795105,
        0.0172262080013752,
        0.000861565989907831,
        -0.012730791233479977,
        -3.0885703563690186,
        0.009175130166113377,
        0.997305154800415,
        -0.020540060475468636,
        -0.6175612807273865,
        -0.08210483938455582,
        -0.08513855934143066,
        -0.031732991337776184,
        -0.34620556235313416,
        -0.02454943209886551,
        -0.006370928138494492,
        0.16279038786888123,
        0.4790246784687042,
        -0.0015376085648313165,
        -0.021024486050009727,
        0.2897045910358429,
        0.37383773922920227,
        -0.0249764584004879,
        8.609675407409668,
        -0.01409868523478508,
        0.73333340883255,
        2.3028581142425537,
        -0.0709262564778328,
        3.79045033454895,
        0.7277966141700745,
        -0.041376881301403046,
        2.257528305053711,
        5.58111572265625,
        -0.18619418144226074,
        -1.1772276163101196,
        -0.007932263426482677,
        -0.12302444130182266,
        -0.2484491765499115,
        0.13069351017475128,
        0.05220367759466171,
        -0.010403377935290337,
        -5.558745384216309,
        12.101486206054688,
        1.104403018951416,
        0.00320392195135355,
        0.013484536670148373,
        -0.01359519176185131,
        0.4612283408641815,
        -0.05990917608141899,
        0.25177040696144104,
        0.06115266680717468,
        -0.5265673995018005,
        0.23551322519779205,
        0.036717887967824936,
        -0.006676362827420235,
        0.027845367789268494,
        -0.03365522623062134,
        0.000981965335085988,
        -0.08455425500869751,
        7.634372234344482,
        -0.0503418929874897,
        -0.007746635004878044,
        0.02458738163113594,
        -0.4299786388874054,
        -0.03535301610827446,
        31.110010147094727,
        -0.056193362921476364,
        1.408807396888733,
        1.7342675924301147,
        -0.15065021812915802,
        6.2805867195129395,
        -0.7501367330551147,
        0.015405090525746346,
        -9.199074745178223,
        -0.7375086545944214,
        0.48892074823379517,
        -2.2167556285858154,
        -0.22496628761291504,
        -0.2937224507331848,
        -7.810129165649414,
        -0.00495294900611043,
        -0.2188786268234253,
        0.12235309183597565,
        -0.34060734510421753,
        -2.42653489112854,
        -0.6102167963981628,
        -0.028466222807765007,
        0.015256796032190323,
        -0.1771184802055359,
        -10.572235107421875,
        -0.61875319480896,
        -7.867892265319824,
        0.09464334696531296,
        0.4022133946418762,
        0.0476350374519825,
        0.03604944422841072,
        -0.014285575598478317,
        0.004817535635083914,
        0.00675747636705637,
        -0.011385029181838036,
        -0.10657352209091187,
        -2.1298625469207764,
        -0.06904445588588715,
        -0.01948614791035652,
        0.19489610195159912,
        -0.5801442265510559,
        -0.024350693449378014,
        0.6873427629470825,
        -0.0554124191403389,
        -1.146109700202942,
        -1.267446756362915,
        0.03401048853993416,
        2.5769622325897217,
        0.7800922989845276,
        0.3241408169269562,
        7.784401893615723,
        -0.5431561470031738,
        0.20877118408679962,
        1.1460305452346802,
        0.0743434727191925,
        -0.05814033001661301,
        -0.2866305112838745,
        0.006372438743710518,
        -0.12958739697933197,
        -0.08026387542486191,
        -1.0210051536560059,
        -2.6196818351745605,
        2.04862642288208,
        -0.06767900288105011,
        -0.001107452204450965,
        0.09095115214586258,
        8.985879898071289,
        -0.0305801909416914,
        0.7223207354545593,
        0.012355945073068142,
        0.14566785097122192,
        0.12381313741207123,
        0.011413484811782837,
        -0.000664452847559005,
        -0.022470710799098015,
        -0.012761697173118591,
        -0.005238022655248642,
        0.10361599922180176,
        -0.04417988285422325,
        -0.03120633214712143,
        -0.002423867117613554,
        0.03278535604476929,
        -0.04644257202744484,
        -0.004886206705123186,
        0.9999832510948181,
        -7.412541890516877e-05,
        -0.008887109346687794,
        -0.026714829728007317,
        -0.0616585835814476,
        -0.16610802710056305,
        -0.43867477774620056,
        -0.013731949031352997,
        14.576727867126465,
        0.5385762453079224,
        0.0031154348980635405,
        -2.2578890323638916,
        -0.10781583189964294,
        0.11189133673906326,
        0.18805217742919922,
        0.017172368243336678,
        0.02717716433107853,
        0.04417958855628967,
        -1.268019676208496,
        -0.03635860234498978,
        -1.614262342453003,
        -0.035930972546339035,
        0.007797253783792257,
        0.0657225251197815,
        15.533557891845703,
        0.03175127133727074,
        0.05429324507713318,
        0.1175181195139885,
        0.6607589721679688,
        -0.6813333034515381,
        0.07635582238435745,
        0.012419850565493107,
        -0.005474933423101902,
        -0.06812157481908798,
        -0.00013269222108647227,
        -0.005749265663325787,
        0.9432026743888855,
        1.172095537185669,
        0.017302578315138817,
        0.0041533117182552814,
        0.00801300909370184,
        -0.0016427505761384964,
        2.114884614944458,
        0.042056143283843994,
        -0.6802994608879089,
        -0.4518560469150543,
        -0.16256603598594666,
        8.648994445800781,
        -0.2179136723279953,
        -0.04724198579788208,
        -0.7610422968864441,
        6.596870422363281,
        0.4887383282184601,
        -4.842484951019287,
        0.5191713571548462,
        0.13619041442871094,
        1.5451209545135498,
        0.0899190679192543,
        -0.11697952449321747,
        -0.05651513487100601,
        0.9753515124320984,
        -4.954407215118408,
        -2.703413963317871,
        -0.15737393498420715,
        -0.5153059363365173,
        -0.19755034148693085,
        -4.454317092895508,
        0.49920472502708435,
        0.0443161241710186,
        0.00988429319113493,
        0.04953096807003021,
        1.7003393173217773,
        0.01976957730948925,
        -0.027575641870498657,
        0.03708569332957268,
        0.09377232193946838,
        -0.006573351100087166,
        0.12182413041591644,
        -1.0230883359909058,
        0.4795895218849182,
        -0.012617086060345173,
        0.20208609104156494,
        -0.21290481090545654,
        -0.005734151694923639,
        -11.838273048400879,
        0.009693118743598461,
        -0.5443387627601624,
        -0.02585677243769169,
        -0.19938060641288757,
        -3.2584710121154785,
        0.0012791818007826805,
        -0.01588425599038601,
        0.48125672340393066,
        -3.938725471496582,
        -0.6931094527244568,
        0.600985050201416,
        -0.14989249408245087,
        0.1330350935459137,
        -1.7453702688217163,
        0.0521373525261879,
        0.6695898771286011,
        0.09600694477558136,
        -1.7989014387130737,
        3.211850643157959,
        -0.3652366101741791,
        0.055876679718494415,
        0.046067092567682266,
        -0.16840484738349915,
        -0.8277697563171387,
        0.10327759385108948,
        0.8528457283973694
      ]
    },
    {
      "activation": "rectified",
      "architecture": "dense",
      "bias": [
        -7.615676403045654,
        4.05813455581665,
        4.623739719390869,
        -0.4381926953792572,
        -5.364101886749268,
        -0.0008372635929845273,
        1.8748117685317993,
        2.5267691612243652,
        0.8703633546829224,
        -0.0028367904014885426,
        -5.148745059967041,
        1.2952649593353271,
        -0.6068897247314453,
        -1.2242032289505005,
        -3.282285690307617,
        -6.292526721954346
      ],
      "weights": [
        0.628773033618927,
        -0.20236900448799133,
        0.15986332297325134,
        -0.019511090591549873,
        -0.31653833389282227,
        -0.18165504932403564,
        0.008540256880223751,
        -0.19399239122867584,
        -0.2989089787006378,
        0.8260873556137085,
        -0.51088547706604,
        -0.11431770026683807,
        -0.2924220860004425,
        0.1324925571680069,
        -0.014936285093426704,
        0.31175971031188965,
        0.07238070666790009,
        -0.2984505593776703,
        -0.10506501793861389,
        0.3872016370296478,
        -0.5877845883369446,
        0.7809261679649353,
        -0.16137577593326569,
        -0.1543443500995636,
        -0.10761381685733795,
        0.25908228754997253,
        -0.005333851557224989,
        -0.15800891816616058,
        0.02233763597905636,
        0.4872354567050934,
        0.03140510246157646,
        0.2682666480541229,
        0.16867482662200928,
        0.1329048126935959,
        0.030231041833758354,
        -0.033118151128292084,
        0.31233933568000793,
        0.09086456149816513,
        -0.48788073658943176,
        -0.03067428432404995,
        0.4642914831638336,
        -0.4870466887950897,
        -0.005096507724374533,
        -0.006487312726676464,
        0.23974096775054932,
        -0.027930958196520805,
        -0.014858449809253216,
        0.2305433303117752,
        -0.11968110501766205,
        -0.06315635144710541,
        -0.2744266092777252,
        1.4147006273269653,
        0.09832985699176788,
        0.21635158360004425,
        0.023128626868128777,
        -0.08309297263622284,
        0.1689562350511551,
        -0.18678532540798187,
        -0.5178243517875671,
        0.08622695505619049,
        0.4400639533996582,
        -1.942292332649231,
        -0.08183834701776505,
        0.25358811020851135,
        0.10714510828256607,
        0.4140474796295166,
        -0.0622616782784462,
        0.0362328477203846,
        0.3038293123245239,
        0.21952910721302032,
        -0.5279166102409363,
        0.05677160620689392,
        0.27573347091674805,
        0.29132091999053955,
        -0.43097245693206787,
        0.2313341498374939,
        0.31320035457611084,
        0.08732444047927856,
        0.3452743589878082,
        0.13815838098526,
        -0.594777524471283,
        0.3122674524784088,
        -0.31500959396362305,
        -0.2999482750892639,
        0.18378381431102753,
        -0.019612429663538933,
        0.5269092917442322,
        -0.3781432807445526,
        0.10541370511054993,
        -0.27758947014808655,
        -0.2917739450931549,
        0.01358204334974289,
        0.2932637333869934,
        -1.2356151342391968,
        0.24270682036876678,
        0.677004873752594,
        -0.018499815836548805,
        -0.3757263720035553,
        0.030110863968729973,
        0.08477182686328888,
        -3.0957605838775635,
        -0.263093501329422,
        -0.047368135303258896,
        -0.027117367833852768,
        0.24311846494674683,
        -0.5525417327880859,
        0.674312949180603,
        0.0316011868417263,
        0.4562981426715851,
        -0.3079526424407959,
        0.35139012336730957,
        -0.5773878693580627,
        -0.6634052395820618,
        -0.04724876582622528,
        -0.8047138452529907,
        0.4080519378185272,
        0.03583225980401039,
        -0.06455239653587341,
        -0.13632890582084656,
        1.1066888570785522,
        1.1458609104156494,
        0.43773719668388367,
        -1.3587055206298828,
        -1.107416033744812,
        0.07174553722143173,
        -0.20545579493045807,
        -0.07575879991054535,
        -2.0664968490600586,
        0.7238467335700989,
        -0.19374726712703705,
        1.2589304447174072,
        0.08345486223697662,
        0.7151292562484741,
        0.2968880534172058,
        0.1036192998290062,
        -0.14437894523143768,
        0.17417162656784058,
        -0.4956132769584656,
        -0.034393683075904846,
        0.05886981636285782,
        0.633484423160553,
        0.0031738586258143187,
        0.17234162986278534,
        -0.10072930157184601,
        -0.37329819798469543,
        0.5295425057411194,
        -0.13661155104637146,
        -0.5584393739700317,
        -0.12177512049674988,
        -0.38937267661094666,
        -0.2715963125228882,
        -0.2490030825138092,
        0.15877850353717804,
        -0.39684823155403137,
        0.00533723458647728,
        1.1690669059753418,
        0.734517514705658,
        -1.424825668334961,
        -0.054338905960321426,
        0.35699084401130676,
        0.19942912459373474,
        -0.22031466662883759,
        -0.17417293787002563,
        -0.21097338199615479,
        0.1776464730501175,
        -0.36294564604759216,
        -0.08915051817893982,
        -0.2538209557533264,
        -0.3677496910095215,
        0.3457981050014496,
        -0.219676673412323,
        0.04808726906776428,
        -0.14292608201503754,
        0.13100707530975342,
        -0.045953910797834396,
        0.011467325501143932,
        0.20972274243831635,
        0.02364448457956314,
        0.10278335213661194,
        0.17976300418376923,
        -0.16229578852653503,
        -0.14364594221115112,
        -0.2445487529039383,
        0.2778835892677307,
        -0.10742464661598206,
        0.09620236605405807,
        -0.20757128298282623,
        -0.33051997423171997,
        0.1262354850769043,
        -0.30932408571243286,
        -0.24473759531974792,
        -0.3060121238231659,
        -0.20955555140972137,
        -0.12274745106697083,
        1.225900650024414,
        -1.7233742475509644,
        -0.03153431788086891,
        -0.18340344727039337,
        0.056459661573171616,
        -0.044041890650987625,
        -0.39538276195526123,
        -0.10716992616653442,
        -0.2729232609272003,
        -0.07148279249668121,
        0.9260493516921997,
        0.4538164436817169,
        0.8347064256668091,
        -0.1378817856311798,
        0.20306214690208435,
        0.4257347583770752,
        -0.16520510613918304,
        -0.024641500785946846,
        -0.05434597283601761,
        -0.026074744760990143,
        -0.09886308759450912,
        -0.3225347101688385,
        0.09298884123563766,
        0.23000794649124146,
        0.24618734419345856,
        1.1092283725738525,
        0.12440445274114609,
        -0.7054698467254639,
        -0.050366226583719254,
        0.6311820149421692,
        -0.21597374975681305,
        0.08897078037261963,
        0.46529892086982727,
        -0.28170353174209595,
        -0.6333636045455933,
        0.021261800080537796,
        -0.32587021589279175,
        0.17276319861412048,
        0.7199045419692993,
        0.487210750579834,
        0.3193334937095642,
        0.03041655197739601,
        0.6027759313583374,
        1.8515729904174805,
        -0.15411414206027985,
        0.5693011283874512,
        -0.1065966784954071,
        -1.1875146627426147,
        -0.06903057545423508,
        -1.0957751274108887,
        0.048663802444934845,
        0.15858928859233856,
        -0.3929236829280853,
        0.3911537230014801,
        0.17592188715934753,
        -0.4533018469810486,
        -0.08381254971027374,
        0.4765176475048065,
        -0.28838053345680237,
        -3.44766902923584,
        0.16812598705291748,
        -0.38419729471206665,
        0.1871500015258789,
        -0.47813844680786133,
        -0.3247031271457672,
        0.05656515061855316,
        0.5304384827613831,
        0.5746195316314697,
        0.061530519276857376,
        -0.22243130207061768,
        0.26349470019340515,
        -0.8670172095298767,
        -0.328060507774353,
        0.062143582850694656,
        0.4267882704734802,
        -0.20688185095787048,
        0.791914701461792,
        0.21883268654346466,
        -0.9687648415565491,
        0.4069998860359192,
        -0.2855907082557678,
        0.6434464454650879,
        -0.11976614594459534,
        -0.45915332436561584,
        0.034031689167022705,
        -0.2730426490306854,
        0.16471312940120697,
        -0.5568336844444275,
        -0.3573395609855652,
        -0.23351900279521942,
        0.5558128356933594,
        1.9835389852523804,
        0.03435957431793213,
        0.2716023027896881,
        -0.8083529472351074,
        -0.18134339153766632,
        1.127802848815918,
        -1.9550775289535522,
        -0.2955588102340698,
        -0.0023318722378462553,
        0.11409968137741089,
        -0.11818547546863556,
        -2.4826602935791016,
        0.4854343831539154,
        -3.3902313709259033,
        0.05345714092254639,
        -1.4478175640106201,
        -1.0171387195587158,
        0.03298645839095116,
        -0.8470266461372375,
        -1.9633201360702515,
        -3.2929389476776123,
        -1.84843111038208,
        -1.8818575143814087,
        -0.28682559728622437,
        -2.6884078979492188,
        -3.8948309421539307,
        -0.525364339351654,
        0.14035770297050476,
        -2.8633413314819336,
        -0.007960462011396885,
        1.1818087100982666,
        -1.5860439538955688,
        -0.7320897579193115,
        0.12765173614025116,
        -0.7269929051399231,
        -0.6659745573997498,
        0.6056602001190186,
        0.48447540402412415,
        -0.007053064182400703,
        -0.6560750603675842,
        -0.1292162984609604,
        -0.9608936905860901,
        -0.49473270773887634,
        0.17666389048099518,
        -1.0070407390594482,
        0.42052164673805237,
        0.10878312587738037,
        0.20875781774520874,
        0.07651218771934509,
        0.30702242255210876,
        -0.18617022037506104,
        -0.03999375179409981,
        -0.1284061074256897,
        1.3421123027801514,
        0.3310067653656006,
        0.16431279480457306,
        -0.2187299132347107,
        -0.15712812542915344,
        -0.21535268425941467,
        -0.3178326189517975,
        0.7173397541046143,
        0.06674937903881073,
        0.19575513899326324,
        -0.6004924774169922,
        0.5177710652351379,
        0.041668109595775604,
        -0.7255201935768127,
        -0.02088957466185093,
        0.18220843374729156,
        0.42626094818115234,
        -0.18507540225982666,
        0.07025489956140518,
        -0.506693959236145,
        -0.13042204082012177,
        0.2468678206205368,
        -0.5502908229827881,
        0.49506083130836487,
        0.1590327024459839,
        0.1041642427444458,
        -0.04110027104616165,
        0.14317277073860168,
        -1.4675453901290894,
        -0.7215004563331604,
        1.1635463237762451,
        0.33630332350730896,
        0.0386853851377964,
        -1.159265398979187,
        -1.3653087615966797,
        0.48056307435035706,
        0.04910380020737648,
        -0.6348042488098145,
        -0.2440098077058792,
        0.7108336687088013,
        0.4821336269378662,
        0.25889578461647034,
        -0.06111300364136696,
        -2.6364667415618896,
        -0.024033360183238983,
        0.01917537860572338,
        0.5144738554954529,
        -0.058462467044591904,
        -0.09336898475885391,
        -0.8789764046669006,
        -0.20567111670970917,
        -0.29002103209495544,
        0.1387072652578354,
        -0.014393802732229233,
        -0.2028326839208603,
        1.20343816280365,
        -0.0843801498413086,
        -0.054760321974754333,
        1.1033450365066528,
        1.7298901081085205,
        0.08508273959159851,
        -1.0514174699783325,
        -2.1382551193237305,
        -0.08277251571416855,
        0.05013629421591759,
        0.1403753161430359,
        -0.010660401545464993,
        -0.20627808570861816,
        -0.013424458913505077,
        0.1507987678050995,
        0.2003888189792633,
        0.6811361908912659,
        -2.752150297164917,
        -0.08040201663970947,
        -0.23921281099319458,
        -0.7465592622756958,
        0.038422297686338425,
        -0.1353568136692047,
        0.13663963973522186,
        0.49302396178245544,
        0.4935556948184967,
        -0.5649347901344299,
        -0.26060569286346436,
        -0.09169430285692215,
        -0.15601544082164764,
        -0.024459751322865486,
        -0.07944328337907791,
        0.8385403752326965,
        -2.4663596153259277,
        -0.10348653048276901,
        -2.4674205780029297,
        2.388768434524536,
        -0.2143007516860962,
        -4.602473258972168,
        -1.0537912845611572,
        -0.6760377883911133,
        -0.09326764196157455,
        -1.5021287202835083,
        0.3430411219596863,
        0.4343801736831665,
        0.6503120064735413,
        0.4125083386898041,
        0.18868711590766907,
        0.23767787218093872,
        -1.355657935142517,
        0.5874171257019043,
        -0.26477786898612976,
        -2.46748685836792,
        -0.9135853052139282,
        -0.07736752182245255,
        0.43825340270996094,
        -0.10335810482501984,
        -0.05990327149629593,
        -0.10066518932580948,
        0.07749319076538086,
        -0.08300434052944183,
        -0.05766281485557556,
        0.5383033752441406,
        0.21835584938526154,
        -0.1980464607477188,
        0.1475333422422409,
        0.2571065127849579,
        -0.15279898047447205,
        0.04417143762111664,
        0.4699797034263611,
        0.05192115530371666,
        -0.04115249589085579,
        -0.1952185183763504,
        0.3042367100715637,
        0.018772447481751442,
        -0.5690221786499023,
        0.5748909711837769,
        1.244711995124817,
        -0.045131731778383255,
        0.050339918583631516,
        0.519921600818634,
        -0.24277044832706451,
        -0.0617181770503521,
        -0.3048909306526184,
        -0.29118049144744873,
        0.25436830520629883,
        -0.5984753370285034,
        -0.14401668310165405,
        -0.5229383707046509,
        -0.031211376190185547,
        0.11895108222961426,
        0.09194604307413101,
        -0.2569133937358856,
        -0.8700319528579712,
        0.12841887772083282,
        -0.03067399375140667,
        -0.5595216751098633,
        -0.011834492906928062,
        -0.09361311048269272,
        -0.0755729228258133,
        -0.14407499134540558,
        0.5958589911460876,
        -0.4144003093242645,
        -0.22797846794128418,
        -0.14713488519191742,
        0.0851285457611084,
        0.33825695514678955,
        -0.3160816729068756,
        -0.08566625416278839,
        0.00859712902456522,
        -0.026453588157892227,
        -0.02400362119078636,
        0.06592660397291183,
        -0.045369815081357956,
        -0.016022631898522377,
        0.12050660699605942,
        0.34779053926467896,
        0.4377988576889038,
        0.6534470319747925
      ]
    },
    {
      "activation": "rectified",
      "architecture": "dense",
      "bias": [
        -8.750280380249023,
        -0.6601586937904358,
        -1.589581847190857,
        -3.7488019466400146,
        7.018883228302002,
        3.8168036937713623,
        -5.0385613441467285,
        2.0009219646453857,
        0.40075230598449707,
        -3.20648455619812,
        -5.991253852844238,
        -4.558578014373779,
        0.721020519733429,
        -5.222606658935547,
        1.348463773727417,
        2.737436532974243
      ],
      "weights": [
        0.21978145837783813,
        -0.1300433725118637,
        -0.5940244793891907,
        -0.11515012383460999,
        0.05284569784998894,
        0.13218718767166138,
        0.016229834407567978,
        -0.00964313093572855,
        0.5671243071556091,
        -0.008213572204113007,
        0.05305005609989166,
        -0.3391987681388855,
        0.11141329258680344,
        -0.2602677047252655,
        0.17670361697673798,
        -0.018522223457694054,
        -0.17632581293582916,
        0.13406066596508026,
        -0.11112801730632782,
        -0.28700321912765503,
        0.7524718046188354,
        0.01902785897254944,
        -1.9080694913864136,
        0.29832562804222107,
        -0.5607907772064209,
        0.4659465253353119,
        -2.233578681945801,
        -1.155472993850708,
        -0.498401939868927,
        -0.10538750886917114,
        0.031908802688121796,
        -0.6970821619033813,
        0.2609580159187317,
        0.09292767941951752,
        -0.11432700604200363,
        -1.021181583404541,
        0.020173173397779465,
        0.09300199151039124,
        -0.36329272389411926,
        -0.3509293496608734,
        -0.33061590790748596,
        0.24587006866931915,
        0.18370026350021362,
        0.03340558335185051,
        0.8093416094779968,
        0.7722751498222351,
        0.11307943612337112,
        0.09231701493263245,
        -0.45882049202919006,
        -0.21691498160362244,
        0.18762147426605225,
        0.3521890938282013,
        -0.5865533947944641,
        -0.40356284379959106,
        0.18249541521072388,
        0.05310041084885597,
        -0.5257269740104675,
        0.27648040652275085,
        1.0861934423446655,
        -0.5811672806739807,
        0.14902245998382568,
        -0.5239858031272888,
        -0.06511993706226349,
        -0.7442734241485596,
        0.08870125561952591,
        -0.3978719115257263,
        -0.10493817180395126,
        0.21799808740615845,
        -0.21061040461063385,
        -0.29389166831970215,
        0.25359421968460083,
        0.20295047760009766,
        0.5479772090911865,
        0.04957186058163643,
        0.43336787819862366,
        -0.7111936807632446,
        -0.20408812165260315,
        0.5093245506286621,
        -0.007941363379359245,
        -0.5287783145904541,
        -0.6164854764938354,
        -0.07193099707365036,
        0.2763042747974396,
        -0.6523087024688721,
        -0.5562629699707031,
        0.36415499448776245,
        0.2254219502210617,
        -0.009755386039614677,
        0.6561313271522522,
        0.3518618941307068,
        -0.7649957537651062,
        -0.05814266949892044,
        0.12735505402088165,
        -0.1319921463727951,
        -0.27630624175071716,
        -0.03209589794278145,
        0.2858603000640869,
        -0.0682099238038063,
        0.0496659092605114,
        -0.8456045389175415,
        0.17280727624893188,
        -0.3327275216579437,
        -0.14479315280914307,
        0.5767579078674316,
        0.20068307220935822,
        -0.25949105620384216,
        -0.45510369539260864,
        -0.09754213690757751,
        0.4408208727836609,
        0.045926425606012344,
        -0.09422322362661362,
        0.11348842829465866,
        -0.3987903594970703,
        -0.21978431940078735,
        0.6079275608062744,
        0.159407839179039,
        -0.372150182723999,
        -0.23940213024616241,
        0.30609577894210815,
        -0.32248276472091675,
        0.24045942723751068,
        0.20864534378051758,
        0.14755187928676605,
        -0.4542415738105774,
        -0.08645007759332657,
        0.5294682383537292,
        -0.29996976256370544,
        0.1826326996088028,
        1.1450440883636475,
        0.07993099093437195,
        -1.1947463750839233,
        0.4585033059120178,
        -0.2180989384651184,
        -0.28838711977005005,
        -0.06507363170385361,
        0.03852789103984833,
        -1.6810914278030396,
        0.10391362756490707,
        0.03656984865665436,
        0.4744325876235962,
        -0.5085629820823669,
        0.6126660704612732,
        -0.4596506655216217,
        -0.018724752590060234,
        0.06191357970237732,
        0.19748307764530182,
        -0.3262465000152588,
        0.4953986704349518,
        0.09475959837436676,
        0.30282339453697205,
        0.08539056032896042,
        -0.6337266564369202,
        0.4472697079181671,
        0.20123182237148285,
        0.43060219287872314,
        -0.5002892017364502,
        0.1588822901248932,
        0.6104815602302551,
        -0.04330163076519966,
        0.0028435925487428904,
        -0.3771619498729706,
        -0.19027717411518097,
        0.09125472605228424,
        0.2539079487323761,
        -0.3295953869819641,
        0.09210363030433655,
        0.19033505022525787,
        0.0728558599948883,
        0.5064359307289124,
        -1.0524128675460815,
        0.2729244828224182,
        -0.4559088349342346,
        0.17402158677577972,
        -0.05274869129061699,
        -0.05927253141999245,
        0.05884052813053131,
        0.02036638744175434,
        -0.2505781948566437,
        0.03315618261694908,
        -0.10971478372812271,
        -0.09929687529802322,
        -0.2618953287601471,
        0.164927676320076,
        0.15863129496574402,
        0.022701241075992584,
        -0.24067197740077972,
        0.2333642989397049,
        -0.46558234095573425,
        -0.08184663206338882,
        -0.349735826253891,
        0.4372421205043793,
        0.48915016651153564,
        0.008412257768213749,
        0.919362485408783,
        -0.23745323717594147,
        0.11011102795600891,
        -0.20996369421482086,
        0.024001384153962135,
        0.08648817241191864,
        0.13906100392341614,
        0.12365543842315674,
        -0.07343065738677979,
        0.1886315941810608,
        -0.0821027085185051,
        -0.4142962098121643,
        0.32781457901000977,
        0.08629024773836136,
        0.1252714991569519,
        -0.25220438838005066,
        0.05855461210012436,
        0.5635907053947449,
        0.2765122354030609,
        0.09728383272886276,
        -0.22124704718589783,
        -0.17176620662212372,
        -0.10436519235372543,
        -0.46912041306495667,
        -0.16527892649173737,
        0.47947248816490173,
        0.26370537281036377,
        -0.14157499372959137,
        0.8458930850028992,
        -0.25252005457878113,
        -0.11936055123806,
        0.00267096608877182,
        -0.06082277372479439,
        0.2056582272052765,
        0.21510057151317596,
        0.13390596210956573,
        -0.13979537785053253,
        -0.029958751052618027,
        -0.2625168561935425,
        0.1857929527759552,
        -0.3339824676513672,
        -0.03753707930445671,
        0.07743549346923828,
        -0.08233977854251862,
        0.16165123879909515,
        0.8218405842781067,
        -0.3134785592556,
        -0.5052831768989563,
        0.1688280552625656,
        0.5553930997848511,
        0.23978233337402344,
        -0.2083406001329422,
        -0.4370860755443573,
        -0.07332877814769745,
        0.04552008956670761,
        0.22855497896671295,
        0.5470651984214783,
        -0.23676927387714386,
        0.000742616830393672,
        0.5470041632652283,
        -0.3743089437484741,
        -0.07906991988420486,
        -0.25689297914505005
      ]
    },
    {
      "activation": "rectified",
      "architecture": "dense",
      "bias": [
        -6.366812229156494,
        -0.22285054624080658,
        5.390463829040527,
        -0.7264228463172913,
        -3.2934796810150146,
        0.7599403262138367,
        -7.637037754058838,
        -4.154468536376953,
        -3.544907569885254,
        4.272973537445068,
        0.43726155161857605,
        0.0572124719619751,
        -0.8260090947151184,
        -2.9958462715148926,
        0.2964467704296112,
        -3.1456775665283203
      ],
      "weights": [
        -0.5512680411338806,
        -0.04329323396086693,
        -0.05074882507324219,
        -0.5649762153625488,
        -0.4871633052825928,
        0.1249542161822319,
        0.14717693626880646,
        0.2678819000720978,
        0.041238319128751755,
        -0.04294879734516144,
        0.5034287571907043,
        0.21150320768356323,
        -0.04693496599793434,
        0.19525359570980072,
        -0.1063641905784607,
        0.18703986704349518,
        -0.14047734439373016,
        0.8939650654792786,
        0.1978410929441452,
        0.4443408250808716,
        -0.16371816396713257,
        0.009306392632424831,
        0.02497907727956772,
        0.5985662341117859,
        -1.514233112335205,
        0.27027037739753723,
        0.12642091512680054,
        -0.34607791900634766,
        0.3165700137615204,
        -0.5034591555595398,
        -0.37112805247306824,
        0.029215579852461815,
        0.15570512413978577,
        -0.15928858518600464,
        -0.39141473174095154,
        -0.48617061972618103,
        0.09860637784004211,
        -0.3956298530101776,
        0.0505378432571888,
        0.2862100899219513,
        0.1799391806125641,
        0.0369185246527195,
        -0.08899504691362381,
        0.058597102761268616,
        -0.14615412056446075,
        0.059046998620033264,
        0.32848337292671204,
        0.25853148102760315,
        -0.21469923853874207,
        0.6854031085968018,
        -0.5935859084129333,
        0.08159743249416351,
        -0.5639817714691162,
        -1.3067911863327026,
        0.23569869995117188,
        -0.5891675353050232,
        -0.08585162460803986,
        -0.45405903458595276,
        0.4563799798488617,
        0.40636661648750305,
        0.23232540488243103,
        -0.4751492142677307,
        -0.36332154273986816,
        -0.02447262592613697,
        -0.14304043352603912,
        0.30748632550239563,
        -0.019288979470729828,
        0.3199293613433838,
        -0.08888557553291321,
        -0.35400331020355225,
        -0.036008261144161224,
        0.03753107413649559,
        -0.1948285698890686,
        -0.39466163516044617,
        -0.07972554117441177,
        0.31052833795547485,
        0.459381639957428,
        0.08156484365463257,
        0.08416276425123215,
        -0.6104819178581238,
        0.005671211052685976,
        0.6845503449440002,
        0.1330174207687378,
        0.487216979265213,
        0.20958979427814484,
        0.3559921681880951,
        0.440193235874176,
        0.09749066084623337,
        0.08120782673358917,
        -0.44248661398887634,
        0.2720489799976349,
        -0.23628473281860352,
        -0.06522885710000992,
        -0.4261705279350281,
        -0.18896783888339996,
        0.6784186363220215,
        0.560971736907959,
        0.4499887228012085,
        0.626264750957489,
        0.021747468039393425,
        -0.13826186954975128,
        -0.032911669462919235,
        0.37466001510620117,
        -0.11126891523599625,
        -0.22882063686847687,
        0.26511919498443604,
        0.2888297438621521,
        0.010811452753841877,
        -0.09008952230215073,
        0.12375696748495102,
        0.17466136813163757,
        -0.039911095052957535,
        -0.20862679183483124,
        0.4791780114173889,
        -0.4101323187351227,
        -0.15558041632175446,
        0.214074969291687,
        -0.5363042950630188,
        -0.08953474462032318,
        0.3597429096698761,
        0.45443013310432434,
        0.15796001255512238,
        -0.5062498450279236,
        0.0026434408500790596,
        -0.021886693313717842,
        0.30953288078308105,
        0.02315060980618,
        -0.0693093091249466,
        -0.18654708564281464,
        -0.35064956545829773,
        -0.7686060667037964,
        -0.04871635511517525,
        -0.34498924016952515,
        -0.6207961440086365,
        -0.337718665599823,
        -0.8344264030456543,
        -0.057412099093198776,
        0.34578222036361694,
        0.014875796623528004,
        0.5644575357437134,
        -0.08787867426872253,
        0.09736081212759018,
        -0.23702822625637054,
        -0.4829281270503998,
        0.2518460154533386,
        -0.7683588266372681,
        -0.5558780431747437,
        -0.058021582663059235,
        0.12494441866874695,
        0.17038922011852264,
        -0.2923700213432312,
        -0.170014888048172,
        -0.13659986853599548,
        0.2290869653224945,
        0.3138267397880554,
        0.0025626164861023426,
        0.2557753324508667,
        -0.11110858619213104,
        -0.17977845668792725,
        0.1224268451333046,
        -0.28625091910362244,
        1.5259063243865967,
        -0.37775588035583496,
        0.32294249534606934,
        0.2680169343948364,
        -0.3243447542190552,
        0.21772734820842743,
        -0.7939072251319885,
        0.3080179989337921,
        -0.04067108780145645,
        0.3405010998249054,
        -0.6697604656219482,
        -0.17913182079792023,
        0.18194110691547394,
        -1.391666054725647,
        0.33125510811805725,
        -0.39451539516448975,
        0.285968154668808,
        0.5201544761657715,
        -0.7836066484451294,
        -0.20814436674118042,
        -0.7599040269851685,
        -0.4903140664100647,
        -0.4655965268611908,
        -0.13158155977725983,
        -0.10202343761920929,
        -0.42188411951065063,
        0.03138506039977074,
        -1.2363526821136475,
        0.23340710997581482,
        0.13071155548095703,
        0.4320221245288849,
        0.15455225110054016,
        -0.7286311388015747,
        -0.07134833186864853,
        -0.16628126800060272,
        0.2878705859184265,
        0.7549875974655151,
        -0.46625709533691406,
        0.009434246458113194,
        -0.2260863482952118,
        0.03421277552843094,
        0.2545820474624634,
        -0.01461066771298647,
        0.04071778431534767,
        -0.17706173658370972,
        0.432294100522995,
        0.11735984683036804,
        0.5558690428733826,
        0.6028811931610107,
        0.0262455977499485,
        0.6866897344589233,
        -0.4467587471008301,
        0.7300739288330078,
        -0.3970244824886322,
        -0.9629234671592712,
        0.07249361276626587,
        0.2094142735004425,
        -0.1129549890756607,
        -0.2373511791229248,
        -0.5173247456550598,
        -0.8375422954559326,
        -0.06809297204017639,
        0.6530198454856873,
        -0.2573327422142029,
        -0.3580819368362427,
        -0.0597425177693367,
        -0.2645181119441986,
        -0.018283383920788765,
        0.21389815211296082,
        -0.08403004705905914,
        0.23986157774925232,
        0.09203547239303589,
        -0.05283576622605324,
        -0.2481696456670761,
        -0.1992146521806717,
        0.5794207453727722,
        0.09241025149822235,
        0.23649762570858002,
        0.19859322905540466,
        0.38464319705963135,
        0.73445725440979,
        -0.31898653507232666,
        0.37180155515670776,
        -0.7290750741958618,
        0.0896124318242073,
        0.23232167959213257,
        0.4028286933898926,
        -1.0818274021148682,
        0.2394394725561142,
        0.21468181908130646,
        0.530447244644165,
        0.042088598012924194,
        -1.0645872354507446,
        -0.33386844396591187,
        0.05863486975431442
      ]
    },
    {
      "activation": "rectified",
      "architecture": "dense",
      "bias": [
        -2.904726982116699,
        5.9005351066589355,
        -0.002490635961294174,
        -5.665744781494141,
        0.11469454318284988,
        -0.42483678460121155,
        0.08645401895046234,
        1.8095046281814575,
        -1.5367553234100342,
        1.7360708713531494,
        0.5049930214881897,
        4.152978420257568,
        0.21226084232330322,
        4.241891384124756,
        -1.8720667362213135,
        -0.917578399181366
      ],
      "weights": [
        0.02296925149857998,
        -0.09018591791391373,
        0.27763333916664124,
        -0.4046511948108673,
        -0.08500750362873077,
        0.4780579209327698,
        0.3834916055202484,
        -0.1141480952501297,
        -0.15577924251556396,
        0.25366640090942383,
        0.29531723260879517,
        0.1798207312822342,
        -0.193988636136055,
        -0.5200095176696777,
        -0.13028568029403687,
        0.09195181727409363,
        -0.09744036942720413,
        -0.05444968119263649,
        0.4443126320838928,
        0.1382235437631607,
        -0.45315709710121155,
        0.30572837591171265,
        -0.8055688142776489,
        -0.5214138031005859,
        -0.40605899691581726,
        0.24910469353199005,
        -0.6336532235145569,
        -0.48147785663604736,
        -0.1481594443321228,
        -0.11034160107374191,
        0.05363462492823601,
        0.06160720810294151,
        -0.00365410465747118,
        -0.24459946155548096,
        -0.027655545622110367,
        -0.11346029490232468,
        -0.17409269511699677,
        0.022942867130041122,
        -0.5043193697929382,
        -0.3228607177734375,
        -0.3150187134742737,
        -0.20327402651309967,
        0.03848189488053322,
        0.14717118442058563,
        -0.36708134412765503,
        -0.18345731496810913,
        -0.35538753867149353,
        -0.29021668434143066,
        0.013096731156110764,
        -0.03695010766386986,
        -0.06544316560029984,
        -0.1629967987537384,
        0.11017035692930222,
        -0.9659168124198914,
        0.3532741963863373,
        0.09636240452528,
        0.16511763632297516,
        0.10931647568941116,
        -0.2787996828556061,
        0.3064907491207123,
        0.014070449396967888,
        -0.3729211688041687,
        -0.07576654106378555,
        -0.032643672078847885,
        -0.7862105965614319,
        -0.028048617765307426,
        -0.038337431848049164,
        -0.4583193063735962,
        -0.34559550881385803,
        0.3453265130519867,
        0.2964771091938019,
        0.14455540478229523,
        -0.42412564158439636,
        0.1848667860031128,
        0.36790019273757935,
        -0.20554472506046295,
        0.27158185839653015,
        0.5571019053459167,
        -0.23557725548744202,
        -0.27338048815727234,
        0.2707498073577881,
        -0.7829111218452454,
        -0.45468267798423767,
        0.4188879728317261,
        -0.9270465970039368,
        0.49034273624420166,
        -0.17348772287368774,
        0.058083727955818176,
        -0.2657625079154968,
        -0.19393141567707062,
        -0.4207485020160675,
        0.42002496123313904,
        -0.4003705382347107,
        0.12938696146011353,
        -0.29788199067115784,
        0.5146147012710571,
        0.07423058897256851,
        -0.1706925630569458,
        0.38090768456459045,
        0.3923264443874359,
        0.2741096019744873,
        -0.1456282138824463,
        -0.01569254882633686,
        -0.10619989037513733,
        0.011723159812390804,
        -0.5084608197212219,
        -0.04602842777967453,
        -0.17198050022125244,
        0.4295431971549988,
        0.021463343873620033,
        0.29973024129867554,
        0.006777199450880289,
        0.6282263994216919,
        -0.11678841710090637,
        0.0031115086749196053,
        -0.41838356852531433,
        -0.04492580145597458,
        -0.22887887060642242,
        -0.5643379092216492,
        -0.6854508519172668,
        0.0473257452249527,
        -0.3050541877746582,
        -0.6478541493415833,
        -0.1888655722141266,
        -0.20148316025733948,
        -0.9563372135162354,
        0.1993270069360733,
        0.43568485975265503,
        -0.6054749488830566,
        -0.1044742614030838,
        0.32208240032196045,
        -0.4551790952682495,
        -0.04706836864352226,
        -0.21357616782188416,
        0.19663618505001068,
        -0.3961905241012573,
        -1.018959403038025,
        0.22312141954898834,
        -0.5417454838752747,
        -0.5765588879585266,
        0.0517553985118866,
        -0.7503524422645569,
        -0.3123091161251068,
        0.5550146102905273,
        -0.14810603857040405,
        0.07462610304355621,
        -0.5005616545677185,
        -0.4802255630493164,
        -0.22701632976531982,
        0.3278428912162781,
        -0.4202400743961334,
        -0.5905089378356934,
        0.22581587731838226,
        0.4369494915008545,
        -1.0753984451293945,
        0.6316327452659607,
        -0.14365775883197784,
        0.30530422925949097,
        -0.011860343627631664,
        0.33518919348716736,
        -0.15804444253444672,
        0.17847970128059387,
        -0.2572108507156372,
        0.15263013541698456,
        0.10961515456438065,
        -0.13865040242671967,
        0.09241535514593124,
        -0.01668468676507473,
        0.0010120817460119724,
        0.28680458664894104,
        0.14960433542728424,
        -0.27550065517425537,
        0.07558665424585342,
        -0.2763696312904358,
        0.6525372862815857,
        -0.026722153648734093,
        0.2890090346336365,
        -0.014703109860420227,
        0.07460606098175049,
        0.0017967384774237871,
        -0.012547582387924194,
        -0.4260876774787903,
        -0.8140702843666077,
        -0.031889453530311584,
        0.13401296734809875,
        0.3909417390823364,
        -0.3035987913608551,
        0.3104921281337738,
        0.44179555773735046,
        -0.9308902025222778,
        -0.4652063548564911,
        0.009884967468678951,
        -0.9673540592193604,
        0.036734193563461304,
        -0.09061593562364578,
        0.7452935576438904,
        0.5401603579521179,
        0.2963251769542694,
        -0.6304794549942017,
        0.20753629505634308,
        -0.8925270438194275,
        0.17320196330547333,
        0.3261603116989136,
        -0.9499750733375549,
        -0.1627020537853241,
        0.6405239105224609,
        -0.07807441055774689,
        -0.7747976779937744,
        -0.18091565370559692,
        -0.19406963884830475,
        0.05966955050826073,
        -0.027205707505345345,
        0.23847706615924835,
        -0.7557132244110107,
        -0.3582437038421631,
        -0.1299237757921219,
        -0.09499022364616394,
        0.5025612115859985,
        -0.381553590297699,
        -0.0953812524676323,
        0.3112104833126068,
        -0.2934992015361786,
        -0.3263680338859558,
        0.10825186222791672,
        0.25139784812927246,
        -0.08789489418268204,
        -0.1078137531876564,
        -0.17986318469047546,
        0.21560555696487427,
        0.2717007100582123,
        -0.5804703831672668,
        -0.29305920004844666,
        -0.029884042218327522,
        0.04406864568591118,
        0.4285157024860382,
        0.456483393907547,
        -1.003578543663025,
        -0.23327961564064026,
        0.3765835762023926,
        -0.18998675048351288,
        -0.12515835464000702,
        0.09892985224723816,
        -0.00321927759796381,
        -0.2873401641845703,
        -0.18231943249702454,
        0.3270668089389801,
        -0.15843799710273743,
        0.045292481780052185,
        0.3486030697822571,
        0.11397802084684372,
        -0.2470441609621048,
        -0.16570404171943665,
        0.7339634299278259,
        -0.25677770376205444,
        -0.14614605903625488,
        0.28354793787002563
      ]
    },
    {
      "activation": "rectified",
      "architecture": "dense",
      "bias": [
        -0.2257682979106903,
        -1.8986823558807373,
        -0.4750034213066101,
        -4.305729866027832,
        0.0024903102312237024,
        -0.11571961641311646,
        0.26879745721817017,
        1.7411644458770752,
        0.06421904265880585,
        -0.037488073110580444,
        -2.75262188911438,
        -1.341881275177002,
        0.972858190536499,
        -2.582947015762329,
        -1.5143506526947021,
        -4.703649997711182
      ],
      "weights": [
        0.0508095808327198,
        -0.24415208399295807,
        -0.09862920641899109,
        0.6419156789779663,
        -0.5161764621734619,
        0.05800231173634529,
        -0.1348070502281189,
        -0.13026820123195648,
        -0.3019798994064331,
        -0.9978280663490295,
        -9.97565221041441e-05,
        -0.9261663556098938,
        0.007933568209409714,
        0.2406853437423706,
        -0.2870049476623535,
        -1.6258002519607544,
        0.48731884360313416,
        -0.7905488610267639,
        0.003177165985107422,
        0.18183207511901855,
        -1.0151721239089966,
        -0.4971625804901123,
        -0.11459464579820633,
        -1.7629142999649048,
        0.2641524076461792,
        -0.0742550641298294,
        -0.15849460661411285,
        -0.3158510625362396,
        0.16529342532157898,
        -0.16439716517925262,
        -0.33799487352371216,
        0.48702365159988403,
        0.2575719654560089,
        0.5566577911376953,
        0.1375615894794464,
        0.5300337076187134,
        -0.09880272299051285,
        0.15631060302257538,
        -0.0801379606127739,
        0.15936610102653503,
        -0.05650261789560318,
        0.11748626083135605,
        0.5047347545623779,
        -0.35962292551994324,
        -0.11104165762662888,
        -0.08914992958307266,
        -0.11546836793422699,
        0.08303061127662659,
        0.29420971870422363,
        0.2947635352611542,
        0.14879782497882843,
        0.05307916924357414,
        0.2849360704421997,
        0.5420134663581848,
        -0.022503605112433434,
        -0.5936912894248962,
        -0.19576676189899445,
        0.03386852145195007,
        -0.5064479112625122,
        -0.9345354437828064,
        0.10531013458967209,
        -1.3976553678512573,
        -0.33947455883026123,
        -0.0271013081073761,
        -0.4558047652244568,
        -0.1401374787092209,
        0.23594897985458374,
        -0.5610670447349548,
        0.028407379984855652,
        0.07464098930358887,
        -0.09976731985807419,
        0.08764772117137909,
        -0.42177024483680725,
        0.3186835050582886,
        -0.12275318801403046,
        0.06726094335317612,
        -0.035955995321273804,
        -0.24986106157302856,
        0.2542385756969452,
        0.5377932190895081,
        -0.3944281339645386,
        -0.0777043029665947,
        -0.09272563457489014,
        -0.18388313055038452,
        -0.08678791671991348,
        0.23461449146270752,
        -0.33863580226898193,
        -0.0618143193423748,
        -0.36735761165618896,
        0.011379982344806194,
        -0.2932594418525696,
        0.20447391271591187,
        0.038343969732522964,
        -0.12192513048648834,
        0.0018881065770983696,
        -0.2247551530599594,
        0.17277033627033234,
        0.2206348031759262,
        0.018232379108667374,
        0.022112416103482246,
        -0.3946244716644287,
        0.4771416187286377,
        0.36162319779396057,
        0.17548200488090515,
        0.023433994501829147,
        -0.3420363664627075,
        -0.2088158130645752,
        0.09025508910417557,
        0.47546958923339844,
        -0.06483843177556992,
        -0.2332717478275299,
        0.11753461509943008,
        -0.3283218741416931,
        -0.05589643120765686,
        -0.23095785081386566,
        -0.48391515016555786,
        -0.08848006278276443,
        -0.1885480284690857,
        0.09039770066738129,
        0.18099968135356903,
        -0.06695116311311722,
        -0.12759163975715637,
        0.1812828779220581,
        0.2267761081457138,
        0.5425702929496765,
        0.26495790481567383,
        0.002508368343114853,
        -0.18901327252388,
        0.0147813456133008,
        -0.15800999104976654,
        0.3429577946662903,
        -0.4735826849937439,
        0.10333480685949326,
        0.23747023940086365,
        -0.33650991320610046,
        0.4703223705291748,
        0.5801164507865906,
        0.5043770670890808,
        -0.06823158264160156,
        -0.22101257741451263,
        0.32313448190689087,
        -0.3925652503967285,
        -0.5593182444572449,
        -1.28658926486969,
        -0.16398446261882782,
        -0.25338804721832275,
        0.10481080412864685,
        -0.08708878606557846,
        -0.480393648147583,
        -0.1811811327934265,
        -0.45673149824142456,
        -0.14411377906799316,
        -0.2047346532344818,
        -0.2572542428970337,
        -0.31567850708961487,
        -0.029873743653297424,
        0.16276715695858002,
        -0.22168183326721191,
        -0.25901103019714355,
        0.018907498568296432,
        -0.1221388503909111,
        -0.04962046816945076,
        -0.3622714877128601,
        -0.30180302262306213,
        -0.08410996198654175,
        -0.11760195344686508,
        0.456609845161438,
        -0.2032657414674759,
        -0.015997285023331642,
        -0.004645726643502712,
        0.024255184456706047,
        -0.216635599732399,
        0.17025978863239288,
        -0.06858833879232407,
        -0.0206253994256258,
        -0.04992973804473877,
        0.40236416459083557,
        -0.542747974395752,
        -0.16764973104000092,
        0.06455264240503311,
        0.14332371950149536,
        0.30208730697631836,
        -0.5394124388694763,
        -0.07981621474027634,
        -0.10399285703897476,
        0.3418883681297302,
        0.029040027409791946,
        0.10494234412908554,
        -0.23575936257839203,
        -1.3583059310913086,
        0.074805349111557,
        -0.25582394003868103,
        -0.3823385238647461,
        0.8620705008506775,
        -0.18698272109031677,
        0.01852990686893463,
        0.033051498234272,
        -0.2257377803325653,
        0.040096890181303024,
        0.07717712223529816,
        0.04109366983175278,
        -0.08070246130228043,
        0.16739626228809357,
        0.31371423602104187,
        -0.12099684774875641,
        -0.4557349383831024,
        -0.26752570271492004,
        0.1991848200559616,
        0.2580776810646057,
        -0.1435389518737793,
        0.1687096357345581,
        0.3350827991962433,
        -0.1977090984582901,
        -0.10786706954240799,
        0.02406122162938118,
        -0.0779271125793457,
        0.25602978467941284,
        -0.0765717476606369,
        -0.07827655225992203,
        -0.16228201985359192,
        0.4533654451370239,
        -0.19429348409175873,
        -0.2064763456583023,
        0.5349273085594177,
        -0.30350297689437866,
        -0.2351401299238205,
        0.15410462021827698,
        0.28187286853790283,
        0.3602481186389923,
        -0.4817468822002411,
        -0.7965579628944397,
        0.0301466416567564,
        -0.022877193987369537,
        -0.07419953495264053,
        0.350963294506073,
        0.06892094016075134,
        -0.034321848303079605,
        -0.029480453580617905,
        0.19550539553165436,
        0.05708196014165878,
        0.4087514877319336,
        0.350816011428833,
        0.41239166259765625,
        -0.2572740912437439,
        -0.14628683030605316,
        -0.2458418607711792,
        0.08891497552394867,
        -0.05754689872264862,
        -0.12182047963142395,
        -0.5795835256576538,
        -0.06188099831342697,
        0.45200178027153015,
        -0.7482792735099792,
        -0.23827753961086273,
        0.016217535361647606,
        -0.20564088225364685
      ]
    },
    {
      "activation": "rectified",
      "architecture": "dense",
      "bias": [
        0.1227589100599289,
        -0.9926902055740356,
        -0.4237435460090637,
        -0.4040274918079376,
        0.4872680902481079,
        -0.2915429472923279,
        -0.08396656066179276,
        1.6336861848831177,
        -2.9970614910125732,
        0.2200627475976944,
        -1.4845592975616455,
        0.380623996257782,
        -1.1153943538665771,
        0.20094752311706543,
        -4.045358657836914,
        1.6487969160079956
      ],
      "weights": [
        -0.4663754403591156,
        0.11723560094833374,
        -0.1028638705611229,
        -0.8571513295173645,
        0.2112358808517456,
        0.025994611904025078,
        -0.5636093616485596,
        0.09436745941638947,
        -0.5431010723114014,
        0.21445626020431519,
        -0.33062735199928284,
        0.45638507604599,
        0.2747308313846588,
        -0.2660684883594513,
        0.17852245271205902,
        0.16652069985866547,
        -0.032136619091033936,
        0.13551437854766846,
        0.05832403898239136,
        -0.49898773431777954,
        -0.028087791055440903,
        -0.35771214962005615,
        0.39411279559135437,
        -0.17771795392036438,
        -0.023723306134343147,
        -0.20796474814414978,
        0.4215545654296875,
        -0.04238751903176308,
        0.11630488932132721,
        0.03893236443400383,
        -0.22820255160331726,
        0.10148151963949203,
        -0.06191089004278183,
        0.13439227640628815,
        -0.25009602308273315,
        -0.10308704525232315,
        -0.5178769826889038,
        -0.4180247187614441,
        0.3134691119194031,
        0.4419143497943878,
        -0.2712300717830658,
        -0.08500086516141891,
        -0.29914021492004395,
        0.17307695746421814,
        -0.9345318675041199,
        0.24399229884147644,
        -0.3158532381057739,
        0.3691665530204773,
        -0.29207950830459595,
        -0.23718486726284027,
        0.43600478768348694,
        -0.16012178361415863,
        0.11868580430746078,
        0.3640907406806946,
        -0.03791812062263489,
        -0.24226850271224976,
        -0.12813545763492584,
        0.35917869210243225,
        -0.10614237189292908,
        -0.09054967015981674,
        0.1412365585565567,
        0.07786742597818375,
        -0.03253863751888275,
        -0.395196795463562,
        0.29663848876953125,
        -0.19434475898742676,
        0.17863774299621582,
        -0.3134008049964905,
        0.12326493859291077,
        0.16256389021873474,
        -0.2751021385192871,
        -0.03252671658992767,
        -0.946354329586029,
        0.004716234281659126,
        0.10060329735279083,
        -0.20790760219097137,
        0.15904031693935394,
        -0.03704190254211426,
        0.45865049958229065,
        0.29422426223754883,
        -0.016517307609319687,
        0.8068976402282715,
        0.048015154898166656,
        -0.6548463106155396,
        0.08866503834724426,
        -0.04042595624923706,
        0.4368950426578522,
        -1.0021048784255981,
        -0.8196120262145996,
        -0.19267874956130981,
        -0.44930216670036316,
        -0.5371078848838806,
        0.21035180985927582,
        -0.586646318435669,
        -0.08746693283319473,
        -0.32569611072540283,
        -0.31902292370796204,
        0.22441577911376953,
        -0.08095376193523407,
        -0.739541232585907,
        0.4825713634490967,
        -0.3831309974193573,
        0.10551023483276367,
        0.1662331372499466,
        -0.8477823138237,
        -0.31822723150253296,
        -0.1587555706501007,
        -0.37335747480392456,
        -0.1957712471485138,
        0.16490687429904938,
        0.2770542800426483,
        -0.5599834322929382,
        -0.3852987587451935,
        0.5310223698616028,
        -0.3174739181995392,
        -1.3191787004470825,
        -0.03294852748513222,
        0.06488998979330063,
        -0.0793752670288086,
        -0.27038317918777466,
        -0.846524715423584,
        -0.3479840159416199,
        0.0815374031662941,
        0.6435170769691467,
        0.6144234538078308,
        -0.14600443840026855,
        0.31431397795677185,
        0.07079899311065674,
        -0.3836096525192261,
        0.40819066762924194,
        -0.1168336495757103,
        0.2450285255908966,
        0.1855335235595703,
        0.32222482562065125,
        -0.1621052324771881,
        0.1786184161901474,
        -0.0694766491651535,
        0.1581052839756012,
        0.21776627004146576,
        -0.18383441865444183,
        0.1631847321987152,
        0.4249054193496704,
        -0.019003087654709816,
        -0.08568121492862701,
        -0.03732842579483986,
        -0.03923940658569336,
        -0.5199965834617615,
        0.40051496028900146,
        0.09227343648672104,
        0.14494597911834717,
        -0.18783573806285858,
        0.10133083164691925,
        0.3440186381340027,
        0.016735227778553963,
        0.030405307188630104,
        0.2113528549671173,
        0.0450991690158844,
        -0.14741528034210205,
        0.27423450350761414,
        -0.10955578088760376,
        -0.42958536744117737,
        -0.26772746443748474,
        -0.3581967353820801,
        0.24800804257392883,
        0.23044487833976746,
        -0.14108490943908691,
        -0.45336219668388367,
        -0.7189918756484985,
        -0.19463609158992767,
        0.23954038321971893,
        0.816922664642334,
        -0.25789475440979004,
        0.26682108640670776,
        0.11150138080120087,
        -0.1367047280073166,
        -0.3487022817134857,
        0.07369711995124817,
        1.0123049020767212,
        -1.1251935958862305,
        0.4144228994846344,
        0.1485128253698349,
        0.17939883470535278,
        -0.3545231223106384,
        0.03287239372730255,
        -0.13207809627056122,
        -0.041071780025959015,
        0.7596522569656372,
        -0.30244845151901245,
        0.020363733172416687,
        -0.7009357810020447,
        0.24639448523521423,
        -0.988357663154602,
        0.14686881005764008,
        -0.05442199856042862,
        0.24847440421581268,
        0.4426594376564026,
        -0.16308175027370453,
        -0.3237333595752716,
        -0.0913485735654831,
        0.3951570391654968,
        -0.02678903192281723,
        0.35759085416793823,
        0.18966050446033478,
        0.43014025688171387,
        -0.2155749797821045,
        -0.1907021850347519,
        -0.08833584934473038,
        -0.059388771653175354,
        -0.49760815501213074,
        -0.29273998737335205,
        -0.4311755299568176,
        -0.269042044878006,
        -0.5744839310646057,
        -0.28624314069747925,
        -0.2719990611076355,
        0.2991968095302582,
        0.5776547193527222,
        -0.07520756870508194,
        -0.7735070586204529,
        -0.14456859230995178,
        -0.46980082988739014,
        -0.5779432654380798,
        0.44391295313835144,
        -0.12205899506807327,
        0.12567737698554993,
        0.20917025208473206,
        0.10987153649330139,
        -0.07516318559646606,
        -0.10953021049499512,
        -0.31066620349884033,
        -0.21748746931552887,
        -0.17282052338123322,
        -0.3496812880039215,
        -0.12439410388469696,
        0.16611593961715698,
        0.09598024189472198,
        -0.23977625370025635,
        0.4533019959926605,
        0.14285579323768616,
        0.2605944871902466,
        0.4068588316440582,
        0.4537283480167389,
        -0.726565420627594,
        0.016276955604553223,
        0.40875449776649475,
        0.20913943648338318,
        0.11052573472261429,
        0.22724156081676483,
        -0.2874809503555298,
        -0.21767199039459229,
        0.27051061391830444,
        -0.19201651215553284,
        -0.3446045219898224,
        -0.18155786395072937,
        -0.2729268968105316,
        0.5817018747329712
      ]
    },
    {
      "activation": "rectified",
      "architecture": "dense",
      "bias": [
        1.6483510732650757,
        -1.4543256759643555,
        -0.03231143578886986,
        -0.7254644632339478,
        -0.3806779682636261,
        -1.1885437965393066,
        -4.93310022354126,
        0.03458205983042717,
        0.9755253791809082,
        -0.23510891199111938,
        -2.2712562084198,
        0.6343561410903931,
        -0.19359290599822998,
        -0.5880022644996643,
        -0.6252709627151489,
        1.9491668939590454
      ],
      "weights": [
        0.4525003135204315,
        0.1808365136384964,
        0.09869836270809174,
        -0.33781319856643677,
        -0.7277243733406067,
        0.1277899146080017,
        0.5850136280059814,
        -0.1956816166639328,
        -0.5555431246757507,
        0.14211446046829224,
        -0.2605017125606537,
        0.03289300948381424,
        -0.37430113554000854,
        0.14303740859031677,
        -0.30632638931274414,
        0.3772392272949219,
